digraph Tree {
node [shape=box] ;
0 [label="y**2 <= 0.446\nentropy = 0.968\nsamples = 5000\nvalue = [3022, 1978]"] ;
1 [label="x**2 <= 0.434\nentropy = 0.973\nsamples = 3279\nvalue = [1324, 1955]"] ;
0 -> 1 [labeldistance=2.5, labelangle=45, headlabel="True"] ;
2 [label="xy <= 0.237\nentropy = 0.556\nsamples = 2218\nvalue = [287, 1931]"] ;
1 -> 2 ;
3 [label="xy <= -0.229\nentropy = 0.371\nsamples = 2072\nvalue = [148, 1924]"] ;
2 -> 3 ;
4 [label="xy <= -0.249\nentropy = 0.439\nsamples = 132\nvalue = [120, 12]"] ;
3 -> 4 ;
5 [label="entropy = 0.0\nsamples = 106\nvalue = [106, 0]"] ;
4 -> 5 ;
6 [label="x**2 <= 0.193\nentropy = 0.996\nsamples = 26\nvalue = [14, 12]"] ;
4 -> 6 ;
7 [label="entropy = 0.0\nsamples = 8\nvalue = [8, 0]"] ;
6 -> 7 ;
8 [label="x**2 <= 0.314\nentropy = 0.918\nsamples = 18\nvalue = [6, 12]"] ;
6 -> 8 ;
9 [label="entropy = 0.0\nsamples = 12\nvalue = [0, 12]"] ;
8 -> 9 ;
10 [label="entropy = 0.0\nsamples = 6\nvalue = [6, 0]"] ;
8 -> 10 ;
11 [label="xy <= 0.199\nentropy = 0.109\nsamples = 1940\nvalue = [28, 1912]"] ;
3 -> 11 ;
12 [label="xy <= -0.166\nentropy = 0.059\nsamples = 1883\nvalue = [13, 1870]"] ;
11 -> 12 ;
13 [label="y**2 <= 0.401\nentropy = 0.399\nsamples = 139\nvalue = [11, 128]"] ;
12 -> 13 ;
14 [label="x**2 <= 0.416\nentropy = 0.197\nsamples = 131\nvalue = [4, 127]"] ;
13 -> 14 ;
15 [label="y, <= -0.607\nentropy = 0.066\nsamples = 127\nvalue = [1, 126]"] ;
14 -> 15 ;
16 [label="x <= 0.33\nentropy = 0.918\nsamples = 3\nvalue = [1, 2]"] ;
15 -> 16 ;
17 [label="entropy = 0.0\nsamples = 2\nvalue = [0, 2]"] ;
16 -> 17 ;
18 [label="entropy = 0.0\nsamples = 1\nvalue = [1, 0]"] ;
16 -> 18 ;
19 [label="entropy = 0.0\nsamples = 124\nvalue = [0, 124]"] ;
15 -> 19 ;
20 [label="x <= 0.654\nentropy = 0.811\nsamples = 4\nvalue = [3, 1]"] ;
14 -> 20 ;
21 [label="entropy = 0.0\nsamples = 3\nvalue = [3, 0]"] ;
20 -> 21 ;
22 [label="entropy = 0.0\nsamples = 1\nvalue = [0, 1]"] ;
20 -> 22 ;
23 [label="y**2 <= 0.411\nentropy = 0.544\nsamples = 8\nvalue = [7, 1]"] ;
13 -> 23 ;
24 [label="y, <= -0.637\nentropy = 1.0\nsamples = 2\nvalue = [1, 1]"] ;
23 -> 24 ;
25 [label="entropy = 0.0\nsamples = 1\nvalue = [0, 1]"] ;
24 -> 25 ;
26 [label="entropy = 0.0\nsamples = 1\nvalue = [1, 0]"] ;
24 -> 26 ;
27 [label="entropy = 0.0\nsamples = 6\nvalue = [6, 0]"] ;
23 -> 27 ;
28 [label="y, <= 0.652\nentropy = 0.013\nsamples = 1744\nvalue = [2, 1742]"] ;
12 -> 28 ;
29 [label="entropy = 0.0\nsamples = 1731\nvalue = [0, 1731]"] ;
28 -> 29 ;
30 [label="xy <= 0.168\nentropy = 0.619\nsamples = 13\nvalue = [2, 11]"] ;
28 -> 30 ;
31 [label="entropy = 0.0\nsamples = 11\nvalue = [0, 11]"] ;
30 -> 31 ;
32 [label="entropy = 0.0\nsamples = 2\nvalue = [2, 0]"] ;
30 -> 32 ;
33 [label="x**2 <= 0.381\nentropy = 0.831\nsamples = 57\nvalue = [15, 42]"] ;
11 -> 33 ;
34 [label="y**2 <= 0.335\nentropy = 0.634\nsamples = 50\nvalue = [8, 42]"] ;
33 -> 34 ;
35 [label="entropy = 0.0\nsamples = 38\nvalue = [0, 38]"] ;
34 -> 35 ;
36 [label="y**2 <= 0.378\nentropy = 0.918\nsamples = 12\nvalue = [8, 4]"] ;
34 -> 36 ;
37 [label="xy <= 0.217\nentropy = 0.918\nsamples = 6\nvalue = [2, 4]"] ;
36 -> 37 ;
38 [label="entropy = 0.0\nsamples = 4\nvalue = [0, 4]"] ;
37 -> 38 ;
39 [label="entropy = 0.0\nsamples = 2\nvalue = [2, 0]"] ;
37 -> 39 ;
40 [label="entropy = 0.0\nsamples = 6\nvalue = [6, 0]"] ;
36 -> 40 ;
41 [label="entropy = 0.0\nsamples = 7\nvalue = [7, 0]"] ;
33 -> 41 ;
42 [label="xy <= 0.248\nentropy = 0.278\nsamples = 146\nvalue = [139, 7]"] ;
2 -> 42 ;
43 [label="x <= -0.45\nentropy = 0.949\nsamples = 19\nvalue = [12, 7]"] ;
42 -> 43 ;
44 [label="y**2 <= 0.177\nentropy = 0.592\nsamples = 7\nvalue = [1, 6]"] ;
43 -> 44 ;
45 [label="entropy = 0.0\nsamples = 1\nvalue = [1, 0]"] ;
44 -> 45 ;
46 [label="entropy = 0.0\nsamples = 6\nvalue = [0, 6]"] ;
44 -> 46 ;
47 [label="xy <= 0.246\nentropy = 0.414\nsamples = 12\nvalue = [11, 1]"] ;
43 -> 47 ;
48 [label="entropy = 0.0\nsamples = 11\nvalue = [11, 0]"] ;
47 -> 48 ;
49 [label="entropy = 0.0\nsamples = 1\nvalue = [0, 1]"] ;
47 -> 49 ;
50 [label="entropy = 0.0\nsamples = 127\nvalue = [127, 0]"] ;
42 -> 50 ;
51 [label="x**2 <= 0.491\nentropy = 0.156\nsamples = 1061\nvalue = [1037, 24]"] ;
1 -> 51 ;
52 [label="y**2 <= 0.057\nentropy = 0.706\nsamples = 125\nvalue = [101, 24]"] ;
51 -> 52 ;
53 [label="x <= -0.686\nentropy = 0.503\nsamples = 27\nvalue = [3, 24]"] ;
52 -> 53 ;
54 [label="x**2 <= 0.485\nentropy = 0.918\nsamples = 3\nvalue = [2, 1]"] ;
53 -> 54 ;
55 [label="entropy = 0.0\nsamples = 2\nvalue = [2, 0]"] ;
54 -> 55 ;
56 [label="entropy = 0.0\nsamples = 1\nvalue = [0, 1]"] ;
54 -> 56 ;
57 [label="xy <= 0.129\nentropy = 0.25\nsamples = 24\nvalue = [1, 23]"] ;
53 -> 57 ;
58 [label="entropy = 0.0\nsamples = 22\nvalue = [0, 22]"] ;
57 -> 58 ;
59 [label="y, <= 0.221\nentropy = 1.0\nsamples = 2\nvalue = [1, 1]"] ;
57 -> 59 ;
60 [label="entropy = 0.0\nsamples = 1\nvalue = [1, 0]"] ;
59 -> 60 ;
61 [label="entropy = 0.0\nsamples = 1\nvalue = [0, 1]"] ;
59 -> 61 ;
62 [label="entropy = 0.0\nsamples = 98\nvalue = [98, 0]"] ;
52 -> 62 ;
63 [label="entropy = 0.0\nsamples = 936\nvalue = [936, 0]"] ;
51 -> 63 ;
64 [label="y**2 <= 0.494\nentropy = 0.102\nsamples = 1721\nvalue = [1698, 23]"] ;
0 -> 64 [labeldistance=2.5, labelangle=-45, headlabel="False"] ;
65 [label="x**2 <= 0.02\nentropy = 0.54\nsamples = 186\nvalue = [163, 23]"] ;
64 -> 65 ;
66 [label="entropy = 0.0\nsamples = 22\nvalue = [0, 22]"] ;
65 -> 66 ;
67 [label="x**2 <= 0.026\nentropy = 0.054\nsamples = 164\nvalue = [163, 1]"] ;
65 -> 67 ;
68 [label="x**2 <= 0.022\nentropy = 0.811\nsamples = 4\nvalue = [3, 1]"] ;
67 -> 68 ;
69 [label="entropy = 0.0\nsamples = 3\nvalue = [3, 0]"] ;
68 -> 69 ;
70 [label="entropy = 0.0\nsamples = 1\nvalue = [0, 1]"] ;
68 -> 70 ;
71 [label="entropy = 0.0\nsamples = 160\nvalue = [160, 0]"] ;
67 -> 71 ;
72 [label="entropy = 0.0\nsamples = 1535\nvalue = [1535, 0]"] ;
64 -> 72 ;
}